digraph Tree {
node [shape=box, style="filled, rounded", color="black", fontname=helvetica] ;
edge [fontname=helvetica] ;
0 [label="Busy <= 0.5\nentropy = 1.555\nsamples = 1007\nvalue = [74, 64, 92, 98, 679]\nclass = BADC", fillcolor="#ee80d7"] ;
1 [label="Roadwork_B <= 0.5\nentropy = 1.081\nsamples = 831\nvalue = [45, 34, 38, 41, 673]\nclass = BADC", fillcolor="#ea61cd"] ;
0 -> 1 [labeldistance=2.5, labelangle=45, headlabel="True"] ;
3 [label="Roadwork_A <= 0.5\nentropy = 0.821\nsamples = 786\nvalue = [0, 34, 38, 41, 673]\nclass = BADC", fillcolor="#e957ca"] ;
1 -> 3 ;
5 [label="Roadwork_D <= 0.5\nentropy = 0.555\nsamples = 745\nvalue = [0, 34, 38, 0, 673]\nclass = BADC", fillcolor="#e84dc6"] ;
3 -> 5 ;
7 [label="Roadwork_C <= 0.5\nentropy = 0.278\nsamples = 707\nvalue = [0, 34, 0, 0, 673]\nclass = BADC", fillcolor="#e643c3"] ;
5 -> 7 ;
9 [label="entropy = 0.0\nsamples = 673\nvalue = [0, 0, 0, 0, 673]\nclass = BADC", fillcolor="#e539c0"] ;
7 -> 9 ;
10 [label="entropy = 0.0\nsamples = 34\nvalue = [0, 34, 0, 0, 0]\nclass = DCBA", fillcolor="#7be539"] ;
7 -> 10 ;
8 [label="entropy = 0.0\nsamples = 38\nvalue = [0, 0, 38, 0, 0]\nclass = CBAD", fillcolor="#39e5c5"] ;
5 -> 8 ;
6 [label="entropy = 0.0\nsamples = 41\nvalue = [0, 0, 0, 41, 0]\nclass = E", fillcolor="#3c39e5"] ;
3 -> 6 ;
4 [label="entropy = 0.0\nsamples = 45\nvalue = [45, 0, 0, 0, 0]\nclass = ADCB", fillcolor="#e58139"] ;
1 -> 4 ;
2 [label="Congestion_level <= 0.955\nentropy = 2.08\nsamples = 176\nvalue = [29, 30, 54, 57, 6]\nclass = E", fillcolor="#fafafe"] ;
0 -> 2 [labeldistance=2.5, labelangle=-45, headlabel="False"] ;
11 [label="Congestion_level <= 0.56\nentropy = 1.931\nsamples = 170\nvalue = [29, 30, 54, 57, 0]\nclass = E", fillcolor="#fafafe"] ;
2 -> 11 ;
13 [label="Congestion_level <= 0.525\nentropy = 1.878\nsamples = 103\nvalue = [18, 14, 41, 30, 0]\nclass = CBAD", fillcolor="#e1fbf6"] ;
11 -> 13 ;
15 [label="entropy = 1.923\nsamples = 92\nvalue = [18, 14, 33, 27, 0]\nclass = CBAD", fillcolor="#edfdfa"] ;
13 -> 15 ;
16 [label="entropy = 0.845\nsamples = 11\nvalue = [0, 0, 8, 3, 0]\nclass = CBAD", fillcolor="#83efdb"] ;
13 -> 16 ;
14 [label="Congestion_level <= 0.885\nentropy = 1.909\nsamples = 67\nvalue = [11, 16, 13, 27, 0]\nclass = E", fillcolor="#d5d4f9"] ;
11 -> 14 ;
17 [label="entropy = 1.809\nsamples = 55\nvalue = [7, 13, 9, 26, 0]\nclass = E", fillcolor="#c3c2f7"] ;
14 -> 17 ;
18 [label="entropy = 1.855\nsamples = 12\nvalue = [4, 3, 4, 1, 0]\nclass = ADCB", fillcolor="#ffffff"] ;
14 -> 18 ;
12 [label="entropy = 0.0\nsamples = 6\nvalue = [0, 0, 0, 0, 6]\nclass = BADC", fillcolor="#e539c0"] ;
2 -> 12 ;
}